33 20
</s> 0.020013 0.022097 -0.019151 -0.016390 0.006833 0.015105 0.004704 0.001057 -0.018018 0.011092 -0.021782 0.006248 -0.003757 -0.004786 -0.016579 -0.009411 0.012897 0.015127 0.014845 0.007987 
Sales_0-3 0.007724 -0.019013 -0.020479 0.024848 0.019006 0.015450 -0.003020 0.020078 -0.002475 0.003674 -0.000746 -0.014916 0.006561 -0.006687 -0.019127 0.023771 0.021896 -0.005476 -0.001131 0.002546 
Sales_3-6 -0.018188 -0.020036 0.022774 0.000315 -0.012912 -0.015211 -0.015382 0.008485 0.001007 0.006655 -0.021068 -0.019039 -0.000650 0.005718 0.012749 -0.015850 0.020398 0.004635 0.005598 -0.003042 
Sales_6-8 0.014932 -0.011439 -0.010487 0.010792 -0.003766 0.005154 0.009023 -0.020443 -0.009915 0.014568 0.021159 0.019660 -0.015234 -0.010538 -0.004546 0.010007 -0.018942 0.014989 0.013939 -0.007995 
Sales_8-11 -0.007758 -0.011192 0.021144 0.019559 -0.005899 0.021075 0.024101 0.009077 0.024915 -0.015556 -0.007658 -0.010537 -0.014536 0.014074 0.007896 0.002125 -0.010968 0.007619 0.015297 0.000968 
Sales_11-18 0.011398 -0.024763 0.021574 0.002399 -0.009155 -0.010416 -0.003740 -0.014675 -0.021848 -0.014185 0.021385 -0.008849 -0.013397 0.011587 -0.008519 0.023783 -0.008023 -0.022944 0.013579 -0.000372 
Sales_18-22 -0.017444 0.004879 0.007210 -0.002407 0.009122 -0.019788 0.004405 0.009083 -0.015045 0.000710 -0.000304 -0.011996 -0.014163 -0.023469 0.000114 0.000764 0.000049 -0.019669 -0.024809 -0.023733 
Sales_22-50 -0.021628 -0.002735 0.006956 0.005921 -0.015912 0.024990 -0.010057 -0.006368 -0.007022 0.023663 -0.018819 0.005805 -0.006677 0.015939 0.000203 0.021348 -0.014096 -0.013026 -0.020961 -0.018334 
Store_Cluster-1 -0.015997 -0.015574 0.012221 -0.009335 0.013400 0.018450 0.006779 0.014753 0.012378 0.011703 -0.017754 -0.017165 -0.018283 -0.000660 0.020653 -0.013683 -0.015302 -0.020982 0.016530 -0.020895 
Store_Cluster-2 -0.002896 0.010894 -0.023091 -0.022393 0.007214 0.017623 0.021321 0.010728 0.015811 -0.015638 -0.018202 0.019874 -0.013824 0.008767 0.002870 0.008952 -0.005911 0.000994 -0.008430 -0.005633 
Store_Cluster-3 -0.022168 -0.016300 0.017427 0.005027 -0.011813 -0.007960 0.012474 -0.017663 -0.011566 0.023672 0.021242 -0.019796 0.004355 -0.011250 0.000761 0.015034 0.024231 0.009933 0.020564 0.015733 
Store_Cluster-4 -0.001157 0.022375 0.012682 0.023707 -0.008527 0.023733 0.021645 -0.007137 -0.022098 0.024163 0.004485 -0.010394 -0.003589 -0.003678 -0.019267 -0.007156 -0.002219 -0.024635 -0.017580 -0.006017 
Store_Cluster-5 -0.004706 0.008950 0.004079 -0.003072 0.014731 0.007232 0.002739 0.018085 -0.005627 -0.007133 -0.002068 -0.013638 -0.014999 0.001012 0.021690 -0.006835 -0.000104 -0.020676 0.018544 -0.007601 
Store_Cluster-6 0.014841 -0.012043 -0.004475 0.000471 0.018115 -0.000431 0.022163 -0.003713 0.010501 -0.000684 -0.019508 0.021253 0.005280 -0.015147 0.015041 -0.020724 -0.021768 0.016338 -0.017159 -0.013238 
Store_Cluster-7 0.017639 0.016427 0.003426 0.022617 0.024283 0.020275 0.008824 -0.021752 0.011444 -0.024461 -0.006432 0.007560 0.004904 -0.007624 0.014690 -0.023040 -0.007056 -0.006559 -0.008281 0.015354 
EatIn(EI) -0.023654 0.013891 0.006688 0.014149 0.018390 0.001382 0.004128 -0.022750 -0.005142 0.016070 -0.008931 0.021064 -0.005969 -0.019389 -0.012956 0.024497 0.016690 -0.019837 0.024083 -0.021044 
TakeAway(TA) -0.023883 0.012380 -0.003282 -0.011654 -0.001907 -0.012580 0.011980 0.019074 0.020898 -0.022062 -0.010600 0.000047 -0.004684 0.019091 0.011009 0.022669 -0.015375 0.008535 0.021339 -0.009151 
Drive-Thru 0.014609 0.006426 -0.022578 0.020991 0.023547 -0.014579 -0.001213 -0.007998 0.012222 -0.019324 0.017467 -0.004711 -0.006085 -0.010154 -0.022008 -0.015243 -0.005594 0.023089 -0.012605 -0.023186 
FoodpandaDaypart 0.001978 0.003060 0.015205 0.000364 0.017410 0.014916 -0.006544 -0.003185 0.003986 0.006313 0.016676 0.020072 -0.012515 -0.012592 -0.008101 -0.013457 0.006189 -0.019144 -0.011345 -0.024868 
DeliverooDaypart 0.010880 0.021813 -0.011024 -0.022753 0.014838 0.007937 -0.012608 -0.003207 -0.006155 -0.000617 -0.009065 0.000178 -0.013818 0.018807 0.019136 0.016306 -0.007370 0.001366 0.004027 -0.013415 
Breakfast(BF) -0.023529 -0.005283 -0.009862 0.014921 0.013486 0.009014 -0.015498 0.017719 -0.008044 0.016915 0.006648 0.023887 0.012662 0.003576 -0.011391 0.024830 -0.011115 0.016653 0.024916 0.024454 
Self-OrderingEI -0.003592 0.016302 0.022600 -0.010833 0.023511 -0.024821 0.001192 -0.002126 0.020975 -0.021558 -0.007277 -0.008019 0.002081 0.023745 -0.008275 -0.024606 -0.007388 0.021246 0.005229 0.014521 
Self-OrderingTA -0.019153 -0.006400 0.002766 -0.011733 0.017569 -0.024036 0.016368 -0.011962 0.016058 0.015994 -0.009435 0.017741 0.002097 0.023846 -0.017610 -0.006219 0.013965 0.022176 0.011372 -0.004934 
Online-Delivery 0.002444 -0.003858 0.009544 0.013001 -0.019183 -0.006602 0.021437 0.001493 0.024863 0.024102 0.004082 -0.023052 0.022864 0.010909 -0.022990 0.018272 -0.024399 -0.011024 0.022252 0.016871 
Phone-Delivery -0.003644 0.005959 -0.015660 -0.023348 0.010910 0.022015 0.020305 0.014021 0.007544 0.009798 -0.000322 0.007883 -0.012961 0.004467 0.004491 -0.000353 0.012677 0.003677 -0.020726 -0.006783 
Phone-Pickup 0.010239 0.017583 -0.018941 0.005000 0.018005 0.018844 -0.020622 0.013902 -0.013242 -0.007386 0.006261 0.011329 -0.020221 -0.013450 0.006239 0.001188 0.022849 0.010809 -0.013655 -0.000115 
GrabfoodDaypart 0.004248 -0.011954 0.016109 -0.013674 0.024759 0.003417 -0.022438 0.001917 -0.002338 0.004580 0.015236 0.000565 -0.001260 0.001690 -0.013838 -0.001324 0.016272 0.017403 0.009871 -0.024844 
FoodpandaBreakfast 0.001041 -0.013123 0.018394 0.021412 0.016327 0.007766 0.006264 -0.008651 -0.012088 -0.009772 -0.019490 0.001374 0.004077 0.006918 0.010664 -0.019607 0.015604 -0.007008 -0.021242 0.019813 
GrabfoodBreakfast -0.014227 -0.003892 -0.020677 0.023539 -0.009634 -0.023579 0.019389 0.007978 0.017664 0.006588 0.018489 0.002036 0.018448 0.021764 0.008653 -0.002880 0.006000 0.019607 -0.015587 -0.002865 
Catering 0.006100 0.010271 0.002800 0.018488 0.007031 0.016415 -0.016655 -0.009914 0.009573 0.023193 0.008080 0.003333 -0.022992 -0.021738 0.021535 0.012138 -0.014883 -0.008222 -0.019258 -0.017095 
DeliverooBreakfast 0.022180 -0.013602 0.005232 -0.005459 -0.011020 -0.002723 -0.022963 -0.011547 -0.001202 0.022073 -0.009312 0.018546 -0.022586 0.020940 0.003215 0.001228 0.013110 0.016537 -0.015849 0.015403 
Birthday/KidsTour 0.006668 -0.005982 0.015526 0.002479 0.021368 0.001040 -0.008128 0.016361 -0.017007 -0.002241 0.020219 0.023457 -0.020178 0.006832 0.020100 0.002671 0.012637 0.013415 0.023546 -0.004589 
Online-Pickup -0.005280 0.015163 -0.024913 0.005582 0.001852 0.022234 -0.018245 -0.000408 0.022314 0.007284 0.013081 0.006345 0.006888 0.005468 0.001097 0.017249 0.018854 0.014443 -0.009666 -0.013790 
